Gauss-Hermite Nodes and Weights

 N=           3
 -1.22474487139158938475702598225325346E+0000   2.95408975150919517194125774040003307E-0001
 -9.86284499109840187085215333606352672E-0017   1.18163590060367651446426862094085664E+0000
  1.22474487139158938475702598225325346E+0000   2.95408975150919683727579467813484371E-0001

 N=           4
 -1.65068012388578377880321568227373064E+0000   8.13128354472452408163718473588232882E-0002
 -5.24647623275290353461741688079200685E-0001   8.04914090005512727898917546554002911E-0001
  5.24647623275290242439439225563546643E-0001   8.04914090005512172787405233975732699E-0001
  1.65068012388578422289242553233634681E+0000   8.13128354472452685719474629877367988E-0002

 N=           5
 -2.02018287045608557761511292483191937E+0000   1.99532420590459655396209370792348636E-0002
 -9.58572464613818397971556350967148319E-0001   3.93619323152241351593261242669541389E-0001
  2.40257940202166816789128455022771163E-0016   9.45308720482941566842782776802778244E-0001
  9.58572464613818731038463738514110446E-0001   3.93619323152241074037505086380406283E-0001
  2.02018287045608557761511292483191937E+0000   1.99532420590458857423410421461085207E-0002

 N=           6
 -2.35060497367449272587691666558384895E+0000   4.53000990550886644542272208013855561E-0003
 -1.33584907401369612500729999737814069E+0000   1.57067320322856890379981109617801849E-0001
 -4.36077411927616176434696626529330388E-0001   7.24629595224392630825605010613799095E-0001
  4.36077411927615954390091701498022303E-0001   7.24629595224391742647185310488566756E-0001
  1.33584907401369634705190492240944877E+0000   1.57067320322856279757317565781704616E-0001
  2.35060497367449316996612651564646512E+0000   4.53000990550882307733582265996119531E-0003

 N=           7
 -2.65196135683523381842974231403786689E+0000   9.71781245099519251466613223300328173E-0004
 -1.67355162876747143307909482246031985E+0000   5.45155828191270785954003486040164717E-0002
 -8.16287882858964697341264127317117527E-0001   4.25607252610127773095882730558514595E-0001
 -1.05978634916828728441807676992045652E-0016   8.10264617556807453802036889101145789E-0001
  8.16287882858964586318961664801463485E-0001   4.25607252610127773095882730558514595E-0001
  1.67355162876747165512369974749162793E+0000   5.45155828191271202287637720473867375E-0002
  2.65196135683523381842974231403786689E+0000   9.71781245099518926205961477648997970E-0004

 N=           8
 -2.93063742025724316420109971659258008E+0000   1.99604072211368024436853318981377470E-0004
 -1.98165675669584184781513158668531105E+0000   1.70779830074135018092018611923776916E-0002
 -1.15719371244678037591313568555051461E+0000   2.07802325814891941657691631917259656E-0001
 -3.81186990207322329293759821666753851E-0001   6.61147012558241597979247217153897509E-0001
  3.81186990207321996226852434119791724E-0001   6.61147012558240709800827517028665170E-0001
  1.15719371244677993182392583548789844E+0000   2.07802325814892441258052713237702847E-0001
  1.98165675669584206985973651171661913E+0000   1.70779830074134879314140533779209363E-0002
  2.93063742025724316420109971659258008E+0000   1.99604072211367672071147261192436417E-0004

 N=           9
 -3.19099320178152723315179173368960619E+0000   3.96069772632643985876138570390025961E-0005
 -2.26658058453184318992157386674080044E+0000   4.94362427553695065601813141142883978E-0003
 -1.46855328921666816732738425343995914E+0000   8.84745273943768062441250776828383096E-0002
 -7.23551018752837338254835231055039912E-0001   4.32651559002555585742300081619760022E-0001
 -2.36155809348332498696770644846555082E-0016   7.20235215606050638292856547195697203E-0001
  7.23551018752837893366347543633310124E-0001   4.32651559002555918809207469166722149E-0001
  1.46855328921666838937198917847126722E+0000   8.84745273943767784885494620539247990E-0002
  2.26658058453184363401078371680341661E+0000   4.94362427553695932963551129546431184E-0003
  3.19099320178152678906258188362699002E+0000   3.96069772632644527977224813142242965E-0005

 N=          10
 -3.43615911883773783586093486519530416E+0000   7.64043285523266809788466707997756089E-0006
 -2.53273167423278788845664166728965938E+0000   1.34364574678122830099502582612558399E-0003
 -1.75668364929988074507605233520735055E+0000   3.38743944554811410307948449371906463E-0002
 -1.03661082978951357702612767752725631E+0000   2.40138611082314740174936673611227889E-0001
 -3.42901327223704532887182949707494117E-0001   6.10862633735325566419760434655472636E-0001
  3.42901327223704588398334180965321139E-0001   6.10862633735325899486667822202434763E-0001
  1.03661082978951246680310305237071589E+0000   2.40138611082314878952814751755795442E-0001
  1.75668364929987985689763263508211821E+0000   3.38743944554810855196436136793636251E-0002
  2.53273167423279055299190076766535640E+0000   1.34364574678122743363328783772203678E-0003
  3.43615911883773783586093486519530416E+0000   7.64043285523261388777604280475586052E-0006

 N=          11
 -3.66847084655958166621303462306968868E+0000   1.43956039371425942493805481131596835E-0006
 -2.78329009978165009542294683342333883E+0000   3.46819466323343113863669762153563170E-0004
 -2.02594801582575545495501501136459410E+0000   1.19113954449115225231459191945759812E-0002
 -1.32655708449493325851165081985527650E+0000   1.17227875167708495141027924546506256E-0001
 -6.56809566882100015483558763662585989E-0001   4.29359752356124890759758727654116228E-0001
  1.97018773700479472178473437582590912E-0016   6.54759286914592619766040115791838616E-0001
  6.56809566882100348550466151209548116E-0001   4.29359752356125556893573502748040482E-0001
  1.32655708449493303646704589482396841E+0000   1.17227875167708633918906002691073809E-0001
  2.02594801582575501086580516130197793E+0000   1.19113954449115329314867750554185477E-0002
  2.78329009978164965133373698336072266E+0000   3.46819466323345607528666478813761387E-0004
  3.66847084655958211030224447313230485E+0000   1.43956039371425900142158118416579882E-0006

 N=          12
 -3.88972489786978181669496734684798867E+0000   2.65855168435631077569894021098151349E-0007
 -3.02063702512088783080912435252685100E+0000   8.57368704358786419550408908207828063E-0005
 -2.27950708050105932400697383855003864E+0000   3.90539058462908896668386304895648209E-0003
 -1.59768263515260455776001435879152268E+0000   5.16079856158839014868000560909422347E-0002
 -9.47788391240163896611647942336276174E-0001   2.60492310264160809030187238022335805E-0001
 -3.14240376254358910745878574743983336E-0001   5.70135236262480193936141859012423083E-0001
  3.14240376254359132790483499775291421E-0001   5.70135236262480193936141859012423083E-0001
  9.47788391240163896611647942336276174E-0001   2.60492310264160975563640931795816869E-0001
  1.59768263515260433571540943376021460E+0000   5.16079856158841304702988850294786971E-0002
  2.27950708050105754765013443829957396E+0000   3.90539058462906815000215132727134915E-0003
  3.02063702512088960716596375277731568E+0000   8.57368704358780863014274919997603774E-0005
  3.88972489786978314896259689703583717E+0000   2.65855168435630283476505970191583472E-0007

 N=          13
 -4.10133759617863979940466379048302770E+0000   4.82573185007311322518479073349906283E-0008
 -3.24660897837241035901456598367076367E+0000   2.04303604027070059281565028719285237E-0005
 -2.51973568567823758002077738638035953E+0000   1.20745999271939055165481224918266889E-0003
 -1.85310765160151214026029720116639510E+0000   2.08627752961699462763700552159207291E-0002
 -1.22005503659074854283517197472974658E+0000   1.40323320687023356256872830272186548E-0001
 -6.05763879171060004580340319080278277E-0001   4.21616296898543463367303729683044367E-0001
 -5.35444506195568258963698407805584588E-0017   6.04393187921162033937605428945971653E-0001
  6.05763879171059449468828006502008066E-0001   4.21616296898542686211186492073466070E-0001
  1.22005503659074854283517197472974658E+0000   1.40323320687023189723419136498705484E-0001
  1.85310765160151280639411197626031935E+0000   2.08627752961699809708395747520626173E-0002
  2.51973568567823846819919708650559187E+0000   1.20745999271939033481437775208178209E-0003
  3.24660897837240813856851673335768282E+0000   2.04303604027072092160638439040099001E-0005
  4.10133759617863979940466379048302770E+0000   4.82573185007309668157253967294556540E-0008

 N=          14
 -4.30444857047363349522584030637517571E+0000   8.62859116812513550217943425436548099E-0009
 -3.46265693360227011510232841828837991E+0000   4.71648435501890383677887214064483601E-0006
 -2.74847072498540079266149405157193542E+0000   3.55092613551923725560138800361187350E-0004
 -2.09518325850771613971801343723200262E+0000   7.85005472645795149277958557831880171E-0003
 -1.47668273114114012578568235767306760E+0000   6.85055342234655445521340766390494537E-0002
 -8.78713787329399420578113222290994599E-0001   2.73105609064246412920340389973716810E-0001
 -2.91745510672561991771800649075885303E-0001   5.36405909712090012142482464696513489E-0001
  2.91745510672561936260649417818058282E-0001   5.36405909712090678276297239790437743E-0001
  8.78713787329399420578113222290994599E-0001   2.73105609064246579453794083747197874E-0001
  1.47668273114114123600870698282960802E+0000   6.85055342234651004629242265764332842E-0002
  2.09518325850771658380722328729461879E+0000   7.85005472645795149277958557831880171E-0003
  2.74847072498540079266149405157193542E+0000   3.55092613551922207677097320654979740E-0004
  3.46265693360226878283469886810053140E+0000   4.71648435501890129568003037774381880E-0006
  4.30444857047363171886900090612471104E+0000   8.62859116812513550217943425436548099E-0009

 N=          15
 -4.49999070730939010331894678529351950E+0000   1.52247580425351429517408706167721361E-0009
 -3.66995037340445096063490382221061736E+0000   1.05911554771107369408566101914859203E-0006
 -2.96716692790560410131206481310073286E+0000   1.00004441232499566164296234127562002E-0004
 -2.32573248617385575087723736942280084E+0000   2.77806884291276808690573929538913944E-0003
 -1.71999257518648884790479769435478374E+0000   3.07800338725461863909060866717481986E-0002
 -1.13611558521092081974757093121297657E+0000   1.58488915795935852992570858077669982E-0001
 -5.65069583255575769165091060131089762E-0001   4.12028687498898149588200112702907063E-0001
 -1.63846931955861275206782315589926957E-0016   5.64100308726417809523923097003716975E-0001
  5.65069583255575769165091060131089762E-0001   4.12028687498898316121653806476388127E-0001
  1.13611558521092104179217585624428466E+0000   1.58488915795936075037175783108978067E-0001
  1.71999257518648795972637799422955140E+0000   3.07800338725460545519219124344090233E-0002
  2.32573248617385797132328661973588169E+0000   2.77806884291276548482052533017849782E-0003
  2.96716692790560321313364511297550052E+0000   1.00004441232500352210871286118276657E-0004
  3.66995037340445140472411367227323353E+0000   1.05911554771106840012974067977147286E-0006
  4.49999070730938832696210738504305482E+0000   1.52247580425353373391848205782757308E-0009

 N=          16
 -4.68873893930581786548827949445694685E+0000   2.65480747401116780039977634500134550E-0010
 -3.86944790486012291097495108260773122E+0000   2.32098084486522495125206989874389052E-0007
 -3.17699916197996001798742327082436532E+0000   2.71186009253788377416135441100308867E-0005
 -2.54620215784748005205528897931799293E+0000   9.32284008624179733049075480266765226E-0004
 -1.95178799091625365669244729360798374E+0000   1.28803115355099646877068408912236919E-0002
 -1.38025853919888152887551768799312413E+0000   8.38100413989860959507183224559412338E-0002
 -8.22951449144655788892066539119696245E-0001   2.80647458528533733090881696625729091E-0001
 -2.73481046138152383839781123242573813E-0001   5.07929479016614227049331020680256188E-0001
  2.73481046138152494862083585758227855E-0001   5.07929479016615004205448258289834484E-0001
  8.22951449144656010936671464151004329E-0001   2.80647458528533733090881696625729091E-0001
  1.38025853919888041865249306283658370E+0000   8.38100413989859294172646286824601702E-0002
  1.95178799091625365669244729360798374E+0000   1.28803115355099941780059324969442969E-0002
  2.54620215784748182841212837956845760E+0000   9.32284008624178757267120243312774619E-0004
  3.17699916197995868571979372063651681E+0000   2.71186009253789088923811134712593685E-0005
  3.86944790486012513142100033292081207E+0000   2.32098084486520351073059252426655785E-0007
  4.68873893930581875366669919458217919E+0000   2.65480747401118486099991025119713972E-0010

 N=          17
 -4.87134519367440343984299033763818443E+0000   4.58057893079864324957951107515771120E-0011
 -4.06194667587547542098036501556634903E+0000   4.97707898163076327934131834907632852E-0008
 -3.37893209114149328797793714329600334E+0000   7.11228914002126271041038380049670309E-0006
 -2.75776291570388920604273153003305197E+0000   2.98643286697752744027894999945260679E-0004
 -2.17350282666662097952325893857050687E+0000   5.06734995762754721060350249217663077E-0003
 -1.61292431422123061501849861087976024E+0000   4.09200341497563263581938031165918801E-0002
 -1.06764872574345082156810349260922521E+0000   1.72648297670097261580224312638165429E-0001
 -5.31633001342654787357844270445639268E-0001   4.01826469470411895557049319904763252E-0001
 -2.70000515096704787214771553011875578E-0016   5.30917937624864055834450482507236302E-0001
  5.31633001342654343268634420383023098E-0001   4.01826469470411729023595626131282188E-0001
  1.06764872574345037747889364254660904E+0000   1.72648297670097178313497465751424897E-0001
  1.61292431422123150319691831100499257E+0000   4.09200341497564235027084578177891672E-0002
  2.17350282666662097952325893857050687E+0000   5.06734995762752292447483881687730900E-0003
  2.75776291570388876195352167997043580E+0000   2.98643286697751226144853520239053069E-0004
  3.37893209114149550842398639360908419E+0000   7.11228914002127202777280359780043284E-0006
  4.06194667587547453280194531544111669E+0000   4.97707898163081952762297195495821978E-0008
  4.87134519367440343984299033763818443E+0000   4.58057893079865358933716798800364709E-0011

 N=          18
 -5.04836400887446856700080388691276312E+0000   7.82819977211587078901186682520940588E-0012
 -4.24811787356812953220241979579441249E+0000   1.04672057957920261278269918273770012E-0008
 -3.57376906848626640922361730190459639E+0000   1.81065448109341484963976526278983670E-0006
 -2.96137750553160605804237093252595514E+0000   9.18112686792943948456760527854214615E-0005
 -2.38629908916668531659865948313381523E+0000   1.88852263026841591699034328399875449E-0003
 -1.83553160426162942364669561357004568E+0000   1.86400423875446308308312381996074691E-0002
 -1.30092085838961835086990959098329768E+0000   9.73017476413154808190242306409345474E-0002
 -7.76682919267411620012353523634374142E-0001   2.84807285669979370901216952916001901E-0001
 -2.58267750519096950245767629894544370E-0001   4.83495694725454949747245336766354740E-0001
  2.58267750519096950245767629894544370E-0001   4.83495694725455338325303955571143888E-0001
  7.76682919267411953079260911181336269E-0001   2.84807285669980259079636653041234240E-0001
  1.30092085838961724064688496582675725E+0000   9.73017476413152726522071134240832180E-0002
  1.83553160426162809137906606338219717E+0000   1.86400423875446551169599018749067909E-0002
  2.38629908916668664886628903332166374E+0000   1.88852263026841851907555724920939610E-0003
  2.96137750553160694622079063265118748E+0000   9.18112686792940424799699949964804091E-0005
  3.57376906848626685331282715196721256E+0000   1.81065448109343051974928946734610946E-0006
  4.24811787356813130855925919604487717E+0000   1.04672057957919880775188143881039571E-0008
  5.04836400887446856700080388691276312E+0000   7.82819977211590633192881246311731051E-0012

 N=          19
 -5.22027169053748263394254536251537502E+0000   1.32629709449851449596267900877286937E-0012
 -4.42853280660377812694150634342804551E+0000   2.16305100986358307147726272041520640E-0009
 -3.76218735196402187526132365746889263E+0000   4.48824314722313113120929790184066022E-0007
 -3.15784881834760255969740683212876320E+0000   2.72091977631617357809203777696538396E-0005
 -2.59113378979454278550065282615832984E+0000   6.70877521407181273173370161799766720E-0004
 -2.04923170985061942062088746752124280E+0000   7.98886677772301344313543580710756942E-0003
 -1.52417061939353204458313939539948478E+0000   5.08103869090522630713735452445689589E-0002
 -1.01036838713431120773122984246583655E+0000   1.83632701306997048185110088525107130E-0001
 -5.03520163423888056364319254498695955E-0001   3.91608988613030506442669320676941425E-0001
 -3.88801549539214752904052753197972222E-0016   5.02974888276186526958611011650646105E-0001
  5.03520163423888167386621717014349997E-0001   3.91608988613030117864610701872152276E-0001
  1.01036838713431165182043969252845272E+0000   1.83632701306997520029895554216636810E-0001
  1.52417061939353315480616402055602521E+0000   5.08103869090520340878747163060324965E-0002
  2.04923170985061942062088746752124280E+0000   7.98886677772295619726072857247345382E-0003
  2.59113378979454278550065282615832984E+0000   6.70877521407182032114890901652870525E-0004
  3.15784881834760478014345608244184405E+0000   2.72091977631614681185090454107466940E-0005
  3.76218735196402009890448425721842796E+0000   4.48824314722315971857126773447710377E-0007
  4.42853280660377812694150634342804551E+0000   2.16305100986358058993542506133218178E-0009
  5.22027169053748174576412566239014268E+0000   1.32629709449850278295595828718958262E-0012

 N=          20
 -5.38748089001123808827742323046550155E+0000   2.22939364553406165908745502322781180E-0013
 -4.60368244955074068514022656017914414E+0000   4.39934099227313129844579479783882661E-0010
 -3.94476404011562120643930029473267496E+0000   1.08606937076927595916488904822377881E-0007
 -3.34785456738321451908291237486992031E+0000   7.80255647853209714185241524520009193E-0006
 -2.78880605842812911987493862397968769E+0000   2.28338636016353429235292704646553830E-0004
 -2.25497400208927478715281722543295473E+0000   3.24377334223786362513153314068858890E-0003
 -1.73853771211658503226260563678806648E+0000   2.48105208874636294635873667857595137E-0002
 -1.23407621539532308396758253365987912E+0000   1.09017206020023363355342382874368923E-0001
 -7.37473728545394502376097989326808602E-0001   2.86675505362834093237012211830005981E-0001
 -2.45340708300901183536169014587358106E-0001   4.62243669600609474734653758787317201E-0001
  2.45340708300901377825198323989752680E-0001   4.62243669600609918823863608849933371E-0001
  7.37473728545394613398400451842462644E-0001   2.86675505362834259770465905603487045E-0001
  1.23407621539532286192297760862857103E+0000   1.09017206020023182944100881286431104E-0001
  1.73853771211658769679786473716376349E+0000   2.48105208874636121163526070176885696E-0002
  2.25497400208927434306360737537033856E+0000   3.24377334223786449249327112909213611E-0003
  2.78880605842812823169651892385445535E+0000   2.28338636016356437896321351921358200E-0004
  3.34785456738321496317212222493253648E+0000   7.80255647853206495460041958178720733E-0006
  3.94476404011562253870692984492052346E+0000   1.08606937076928059137631934517875809E-0007
  4.60368244955073979696180686005391181E+0000   4.39934099227317265747642244922257018E-0010
  5.38748089001123631192058383021503687E+0000   2.22939364553410810721755443640291444E-0013
  
